<?xml version="1.0"?>
<opencv_storage>
<cascade>
  <stageType>BOOST</stageType>
  <featureType>HAAR</featureType>
  <height>24</height>
  <width>24</width>
  <stageParams>
    <boostType>GAB</boostType>
    <minHitRate>9.9500000476837158e-01</minHitRate>
    <maxFalseAlarm>5.0000000000000000e-01</maxFalseAlarm>
    <weightTrimRate>9.4999998807907104e-01</weightTrimRate>
    <maxDepth>1</maxDepth>
    <maxWeakCount>100</maxWeakCount></stageParams>
  <featureParams>
    <maxCatCount>0</maxCatCount>
    <featSize>1</featSize>
    <mode>BASIC</mode></featureParams>
  <stageNum>34</stageNum>
  <stages>
    <!-- stage 0 -->
    <_>
      <maxWeakCount>2</maxWeakCount>
      <stageThreshold>3.4820206463336945e-02</stageThreshold>
      <weakClassifiers>
        <_>
          <internalNodes>
            0 -1 27 1.3464847579598427e-02</internalNodes>
          <leafValues>
            8.6956518888473511e-01 -6.9696968793869019e-01</leafValues></_>
        <_>
          <internalNodes>
            0 -1 50 3.0328929424285889e-03</internalNodes>
          <leafValues>
            8.2750034332275391e-01 -8.3474498987197876e-01</leafValues></_></weakClassifiers></_>
    <!-- stage 1 -->
    <_>
      <maxWeakCount>1</maxWeakCount>
      <stageThreshold>6.5517240762710571e-01</stageThreshold>
      <weakClassifiers>
        <_>
          <internalNodes>
            0 -1 44 5.6571373715996742e-04</internalNodes>
          <leafValues>
            6.5517240762710571e-01 -1.</leafValues></_></weakClassifiers></_>
    <!-- stage 2 -->
    <_>
      <maxWeakCount>2</maxWeakCount>
      <stageThreshold>6.6262446343898773e-02</stageThreshold>
      <weakClassifiers>
        <_>
          <internalNodes>
            0 -1 44 -2.4206875241361558e-04</internalNodes>
          <leafValues>
            -6.9696968793869019e-01 8.6956518888473511e-01</leafValues></_>
        <_>
          <internalNodes>
            0 -1 51 -4.8959068953990936e-04</internalNodes>
          <leafValues>
            -7.8738451004028320e-01 7.6323211193084717e-01</leafValues></_></weakClassifiers></_>
    <!-- stage 3 -->
    <_>
      <maxWeakCount>3</maxWeakCount>
      <stageThreshold>3.8370928168296814e-01</stageThreshold>
      <weakClassifiers>
        <_>
          <internalNodes>
            0 -1 36 -8.0259388778358698e-04</internalNodes>
          <leafValues>
            -9.1304349899291992e-01 6.7857140302658081e-01</leafValues></_>
        <_>
          <internalNodes>
            0 -1 108 -3.1567434780299664e-04</internalNodes>
          <leafValues>
            -9.5278948545455933e-01 6.4454954862594604e-01</leafValues></_>
        <_>
          <internalNodes>
            0 -1 70 7.0542166940867901e-04</internalNodes>
          <leafValues>
            6.5792739391326904e-01 -9.0388590097427368e-01</leafValues></_></weakClassifiers></_>
    <!-- stage 4 -->
    <_>
      <maxWeakCount>3</maxWeakCount>
      <stageThreshold>6.2529796361923218e-01</stageThreshold>
      <weakClassifiers>
        <_>
          <internalNodes>
            0 -1 35 -6.6292530391365290e-04</internalNodes>
          <leafValues>
            -8.3999997377395630e-01 7.0370370149612427e-01</leafValues></_>
        <_>
          <internalNodes>
            0 -1 113 1.7782955546863377e-04</internalNodes>
          <leafValues>
            7.6474058628082275e-01 -8.7697750329971313e-01</leafValues></_>
        <_>
          <internalNodes>
            0 -1 103 -6.9255664129741490e-05</internalNodes>
          <leafValues>
            -7.1709954738616943e-01 7.9857170581817627e-01</leafValues></_></weakClassifiers></_>
    <!-- stage 5 -->
    <_>
      <maxWeakCount>3</maxWeakCount>
      <stageThreshold>5.9724873304367065e-01</stageThreshold>
      <weakClassifiers>
        <_>
          <internalNodes>
            0 -1 39 -3.2229011412709951e-04</internalNodes>
          <leafValues>
            -8.3333331346511841e-01 6.7272728681564331e-01</leafValues></_>
        <_>
          <internalNodes>
            0 -1 99 -9.3123607803136110e-04</internalNodes>
          <leafValues>
            -8.0575799942016602e-01 7.6023530960083008e-01</leafValues></_>
        <_>
          <internalNodes>
            0 -1 85 9.7442338301334530e-05</internalNodes>
          <leafValues>
            7.3027944564819336e-01 -8.3095240592956543e-01</leafValues></_></weakClassifiers></_>
    <!-- stage 6 -->
    <_>
      <maxWeakCount>3</maxWeakCount>
      <stageThreshold>-6.0163474082946777e-01</stageThreshold>
      <weakClassifiers>
        <_>
          <internalNodes>
            0 -1 30 -3.0198812484741211e-01</internalNodes>
          <leafValues>
            -8.0952382087707520e-01 5.8620691299438477e-01</leafValues></_>
        <_>
          <internalNodes>
            0 -1 98 6.5136708144564182e-05</internalNodes>
          <leafValues>
            7.1742820739746094e-01 -5.2019572257995605e-01</leafValues></_>
        <_>
          <internalNodes>
            0 -1 34 1.6272915672743693e-05</internalNodes>
          <leafValues>
            5.4724460840225220e-01 -6.6764593124389648e-01</leafValues></_></weakClassifiers></_>
    <!-- stage 7 -->
    <_>
      <maxWeakCount>2</maxWeakCount>
      <stageThreshold>1.4732667803764343e-01</stageThreshold>
      <weakClassifiers>
        <_>
          <internalNodes>
            0 -1 75 2.6922050165012479e-04</internalNodes>
          <leafValues>
            6.6666668653488159e-01 -7.5999999046325684e-01</leafValues></_>
        <_>
          <internalNodes>
            0 -1 93 -2.6950519531965256e-04</internalNodes>
          <leafValues>
            9.0732669830322266e-01 -4.4721457362174988e-01</leafValues></_></weakClassifiers></_>
    <!-- stage 8 -->
    <_>
      <maxWeakCount>4</maxWeakCount>
      <stageThreshold>4.9546029418706894e-02</stageThreshold>
      <weakClassifiers>
        <_>
          <internalNodes>
            0 -1 107 6.3904379203449935e-05</internalNodes>
          <leafValues>
            6.8000000715255737e-01 -5.8620691299438477e-01</leafValues></_>
        <_>
          <internalNodes>
            0 -1 88 1.5125185018405318e-04</internalNodes>
          <leafValues>
            5.7675564289093018e-01 -7.4497675895690918e-01</leafValues></_>
        <_>
          <internalNodes>
            0 -1 54 -1.3910009874962270e-04</internalNodes>
          <leafValues>
            -5.6072741746902466e-01 7.1862030029296875e-01</leafValues></_>
        <_>
          <internalNodes>
            0 -1 79 1.7294507415499538e-04</internalNodes>
          <leafValues>
            -5.7487797737121582e-01 6.7525023221969604e-01</leafValues></_></weakClassifiers></_>
    <!-- stage 9 -->
    <_>
      <maxWeakCount>3</maxWeakCount>
      <stageThreshold>1.8472541868686676e-01</stageThreshold>
      <weakClassifiers>
        <_>
          <internalNodes>
            0 -1 24 2.5571674108505249e-01</internalNodes>
          <leafValues>
            5.0000000000000000e-01 -1.</leafValues></_>
        <_>
          <internalNodes>
            0 -1 53 5.5210250138770789e-05</internalNodes>
          <leafValues>
            4.5859810709953308e-01 -8.0128455162048340e-01</leafValues></_>
        <_>
          <internalNodes>
            0 -1 48 -9.7125332104042172e-05</internalNodes>
          <leafValues>
            -7.7387267351150513e-01 5.0895297527313232e-01</leafValues></_></weakClassifiers></_>
    <!-- stage 10 -->
    <_>
      <maxWeakCount>3</maxWeakCount>
      <stageThreshold>-5.9712851047515869e-01</stageThreshold>
      <weakClassifiers>
        <_>
          <internalNodes>
            0 -1 71 3.5551932523958385e-04</internalNodes>
          <leafValues>
            7.7272725105285645e-01 -4.8571428656578064e-01</leafValues></_>
        <_>
          <internalNodes>
            0 -1 38 -3.5340126487426460e-05</internalNodes>
          <leafValues>
            -7.1489489078521729e-01 5.9860515594482422e-01</leafValues></_>
        <_>
          <internalNodes>
            0 -1 74 6.8622864782810211e-03</internalNodes>
          <leafValues>
            5.5329132080078125e-01 -7.1001940965652466e-01</leafValues></_></weakClassifiers></_>
    <!-- stage 11 -->
    <_>
      <maxWeakCount>3</maxWeakCount>
      <stageThreshold>6.2494981288909912e-01</stageThreshold>
      <weakClassifiers>
        <_>
          <internalNodes>
            0 -1 111 -9.3614042270928621e-04</internalNodes>
          <leafValues>
            -8.2608693838119507e-01 6.4285713434219360e-01</leafValues></_>
        <_>
          <internalNodes>
            0 -1 43 -4.7825327783357352e-05</internalNodes>
          <leafValues>
            -8.6581265926361084e-01 6.2462407350540161e-01</leafValues></_>
        <_>
          <internalNodes>
            0 -1 55 4.7129305312409997e-04</internalNodes>
          <leafValues>
            8.9227288961410522e-01 -6.4253139495849609e-01</leafValues></_></weakClassifiers></_>
    <!-- stage 12 -->
    <_>
      <maxWeakCount>4</maxWeakCount>
      <stageThreshold>5.4675385355949402e-02</stageThreshold>
      <weakClassifiers>
        <_>
          <internalNodes>
            0 -1 112 -7.1048605605028570e-05</internalNodes>
          <leafValues>
            -7.6923078298568726e-01 6.9811320304870605e-01</leafValues></_>
        <_>
          <internalNodes>
            0 -1 105 -6.4083447796292603e-05</internalNodes>
          <leafValues>
            -8.3156347274780273e-01 6.8113291263580322e-01</leafValues></_>
        <_>
          <internalNodes>
            0 -1 69 -1.2172458809800446e-04</internalNodes>
          <leafValues>
            -6.0707527399063110e-01 9.4197058677673340e-01</leafValues></_>
        <_>
          <internalNodes>
            0 -1 76 4.8152345698326826e-04</internalNodes>
          <leafValues>
            7.9520094394683838e-01 -6.1903059482574463e-01</leafValues></_></weakClassifiers></_>
    <!-- stage 13 -->
    <_>
      <maxWeakCount>3</maxWeakCount>
      <stageThreshold>4.0386077761650085e-01</stageThreshold>
      <weakClassifiers>
        <_>
          <internalNodes>
            0 -1 64 4.3489382369443774e-04</internalNodes>
          <leafValues>
            6.2068963050842285e-01 -9.0476191043853760e-01</leafValues></_>
        <_>
          <internalNodes>
            0 -1 87 -6.8719882983714342e-04</internalNodes>
          <leafValues>
            -6.4971745014190674e-01 7.4708801507949829e-01</leafValues></_>
        <_>
          <internalNodes>
            0 -1 73 -3.4424028854118660e-05</internalNodes>
          <leafValues>
            -7.8354650735855103e-01 5.6153470277786255e-01</leafValues></_></weakClassifiers></_>
    <!-- stage 14 -->
    <_>
      <maxWeakCount>3</maxWeakCount>
      <stageThreshold>3.8864400982856750e-01</stageThreshold>
      <weakClassifiers>
        <_>
          <internalNodes>
            0 -1 40 1.5030513168312609e-05</internalNodes>
          <leafValues>
            6.6666668653488159e-01 -4.8387095332145691e-01</leafValues></_>
        <_>
          <internalNodes>
            0 -1 59 2.8170505538582802e-03</internalNodes>
          <leafValues>
            4.7175946831703186e-01 -7.9984122514724731e-01</leafValues></_>
        <_>
          <internalNodes>
            0 -1 90 -1.1838029604405165e-04</internalNodes>
          <leafValues>
            -7.4468642473220825e-01 5.2181857824325562e-01</leafValues></_></weakClassifiers></_>
    <!-- stage 15 -->
    <_>
      <maxWeakCount>3</maxWeakCount>
      <stageThreshold>-3.2180503010749817e-01</stageThreshold>
      <weakClassifiers>
        <_>
          <internalNodes>
            0 -1 106 3.3287034602835774e-04</internalNodes>
          <leafValues>
            7.3913043737411499e-01 -5.1515150070190430e-01</leafValues></_>
        <_>
          <internalNodes>
            0 -1 101 1.1163998860865831e-03</internalNodes>
          <leafValues>
            -2.9275676608085632e-01 1.</leafValues></_>
        <_>
          <internalNodes>
            0 -1 110 1.2183098988316488e-05</internalNodes>
          <leafValues>
            5.6696271896362305e-01 -7.6817870140075684e-01</leafValues></_></weakClassifiers></_>
    <!-- stage 16 -->
    <_>
      <maxWeakCount>4</maxWeakCount>
      <stageThreshold>-2.3077890276908875e-02</stageThreshold>
      <weakClassifiers>
        <_>
          <internalNodes>
            0 -1 37 5.1910803449572995e-05</internalNodes>
          <leafValues>
            6.0784316062927246e-01 -5.0000000000000000e-01</leafValues></_>
        <_>
          <internalNodes>
            0 -1 63 5.7664862833917141e-04</internalNodes>
          <leafValues>
            6.6040611267089844e-01 -5.6638526916503906e-01</leafValues></_>
        <_>
          <internalNodes>
            0 -1 104 5.5402666330337524e-03</internalNodes>
          <leafValues>
            4.6631342172622681e-01 -7.9984432458877563e-01</leafValues></_>
        <_>
          <internalNodes>
            0 -1 86 3.4419106668792665e-05</internalNodes>
          <leafValues>
            -4.9148276448249817e-01 8.5309594869613647e-01</leafValues></_></weakClassifiers></_>
    <!-- stage 17 -->
    <_>
      <maxWeakCount>4</maxWeakCount>
      <stageThreshold>1.4821971952915192e-01</stageThreshold>
      <weakClassifiers>
        <_>
          <internalNodes>
            0 -1 96 3.8444952224381268e-05</internalNodes>
          <leafValues>
            6.8627452850341797e-01 -6.4285713434219360e-01</leafValues></_>
        <_>
          <internalNodes>
            0 -1 56 -6.5699954575393349e-05</internalNodes>
          <leafValues>
            -7.1432590484619141e-01 6.0339659452438354e-01</leafValues></_>
        <_>
          <internalNodes>
            0 -1 95 -7.6163740595802665e-04</internalNodes>
          <leafValues>
            9.6366870403289795e-01 -4.5783317089080811e-01</leafValues></_>
        <_>
          <internalNodes>
            0 -1 81 1.3888960893382318e-05</internalNodes>
          <leafValues>
            7.2545778751373291e-01 -7.7598845958709717e-01</leafValues></_></weakClassifiers></_>
    <!-- stage 18 -->
    <_>
      <maxWeakCount>2</maxWeakCount>
      <stageThreshold>9.7266010940074921e-02</stageThreshold>
      <weakClassifiers>
        <_>
          <internalNodes>
            0 -1 72 -1.3943435624241829e-02</internalNodes>
          <leafValues>
            1. -3.7777778506278992e-01</leafValues></_>
        <_>
          <internalNodes>
            0 -1 21 -1.2134477496147156e-02</internalNodes>
          <leafValues>
            -9.0273398160934448e-01 6.4899426698684692e-01</leafValues></_></weakClassifiers></_>
    <!-- stage 19 -->
    <_>
      <maxWeakCount>14</maxWeakCount>
      <stageThreshold>-3.1799435615539551e-01</stageThreshold>
      <weakClassifiers>
        <_>
          <internalNodes>
            0 -1 57 -5.6844658683985472e-04</internalNodes>
          <leafValues>
            1. -3.7777778506278992e-01</leafValues></_>
        <_>
          <internalNodes>
            0 -1 52 -4.6867360360920429e-03</internalNodes>
          <leafValues>
            1. -1.4992846548557281e-01</leafValues></_>
        <_>
          <internalNodes>
            0 -1 109 4.6356878010556102e-04</internalNodes>
          <leafValues>
            3.0394625663757324e-01 -9.0299034118652344e-01</leafValues></_>
        <_>
          <internalNodes>
            0 -1 66 -3.9298729971051216e-03</internalNodes>
          <leafValues>
            1. -2.1195131540298462e-01</leafValues></_>
        <_>
          <internalNodes>
            0 -1 31 5.9533510357141495e-03</internalNodes>
          <leafValues>
            1.3179633021354675e-01 -8.5571688413619995e-01</leafValues></_>
        <_>
          <internalNodes>
            0 -1 49 2.6462168898433447e-04</internalNodes>
          <leafValues>
            -1.0454647243022919e-01 1.</leafValues></_>
        <_>
          <internalNodes>
            0 -1 67 -1.6402610344812274e-04</internalNodes>
          <leafValues>
            -1. 7.5702950358390808e-02</leafValues></_>
        <_>
          <internalNodes>
            0 -1 60 -7.7331191278062761e-05</internalNodes>
          <leafValues>
            1. -3.2337825745344162e-02</leafValues></_>
        <_>
          <internalNodes>
            0 -1 45 3.2562106847763062e-02</internalNodes>
          <leafValues>
            4.1848409920930862e-02 -1.</leafValues></_>
        <_>
          <internalNodes>
            0 -1 46 1.5682457888033241e-04</internalNodes>
          <leafValues>
            -2.9138311743736267e-02 1.</leafValues></_>
        <_>
          <internalNodes>
            0 -1 41 3.4271844924660400e-05</internalNodes>
          <leafValues>
            3.4378293901681900e-02 -1.</leafValues></_>
        <_>
          <internalNodes>
            0 -1 18 -6.1210579588077962e-05</internalNodes>
          <leafValues>
            1. -3.5393119323998690e-03</leafValues></_>
        <_>
          <internalNodes>
            0 -1 4 1.2566342775244266e-04</internalNodes>
          <leafValues>
            7.1026729419827461e-03 -1.</leafValues></_>
        <_>
          <internalNodes>
            0 -1 1 2.2593980247620493e-05</internalNodes>
          <leafValues>
            -3.5497930366545916e-03 1.</leafValues></_></weakClassifiers></_>
    <!-- stage 20 -->
    <_>
      <maxWeakCount>27</maxWeakCount>
      <stageThreshold>-4.4690895080566406e-01</stageThreshold>
      <weakClassifiers>
        <_>
          <internalNodes>
            0 -1 25 -3.6378223448991776e-03</internalNodes>
          <leafValues>
            9.3750000000000000e-01 -2.7659574151039124e-01</leafValues></_>
        <_>
          <internalNodes>
            0 -1 62 -5.7648809161037207e-05</internalNodes>
          <leafValues>
            1. -1.8648029863834381e-01</leafValues></_>
        <_>
          <internalNodes>
            0 -1 68 2.5873316917568445e-04</internalNodes>
          <leafValues>
            -1.1483842879533768e-01 1.</leafValues></_>
        <_>
          <internalNodes>
            0 -1 102 -4.3047862127423286e-03</internalNodes>
          <leafValues>
            -9.2868107557296753e-01 2.1066455543041229e-01</leafValues></_>
        <_>
          <internalNodes>
            0 -1 80 2.1564792405115440e-05</internalNodes>
          <leafValues>
            -1.4636981487274170e-01 1.</leafValues></_>
        <_>
          <internalNodes>
            0 -1 89 -7.2952076792716980e-02</internalNodes>
          <leafValues>
            -1. 1.1988107860088348e-01</leafValues></_>
        <_>
          <internalNodes>
            0 -1 58 9.2517286248039454e-05</internalNodes>
          <leafValues>
            -8.6491808295249939e-02 1.</leafValues></_>
        <_>
          <internalNodes>
            0 -1 84 -3.4476567525416613e-03</internalNodes>
          <leafValues>
            1. -1.7150972038507462e-02</leafValues></_>
        <_>
          <internalNodes>
            0 -1 33 -1.5617687022313476e-03</internalNodes>
          <leafValues>
            -1. 6.0738030821084976e-02</leafValues></_>
        <_>
          <internalNodes>
            0 -1 19 -9.1815862106159329e-05</internalNodes>
          <leafValues>
            1. -1.0265186429023743e-02</leafValues></_>
        <_>
          <internalNodes>
            0 -1 12 2.3663078900426626e-03</internalNodes>
          <leafValues>
            -3.6058423802387551e-07 -1.</leafValues></_>
        <_>
          <internalNodes>
            0 -1 10 3.5641764407046139e-04</internalNodes>
          <leafValues>
            -1.0737392641789947e-16 1.</leafValues></_>
        <_>
          <internalNodes>
            0 -1 22 -1.6111724078655243e-02</internalNodes>
          <leafValues>
            -1. -4.2929022077254990e-16</leafValues></_>
        <_>
          <internalNodes>
            0 -1 17 -2.4484231835231185e-04</internalNodes>
          <leafValues>
            1. 2.4545225454328549e-16</leafValues></_>
        <_>
          <internalNodes>
            0 -1 8 3.0064475722610950e-03</internalNodes>
          <leafValues>
            -2.1665901062771086e-16 -1.</leafValues></_>
        <_>
          <internalNodes>
            0 -1 8 1.7285473877564073e-03</internalNodes>
          <leafValues>
            1.4248962939257212e-16 1.</leafValues></_>
        <_>
          <internalNodes>
            0 -1 5 8.5592815594282001e-05</internalNodes>
          <leafValues>
            7.4440100906015096e-18 -1.</leafValues></_>
        <_>
          <internalNodes>
            0 -1 2 -3.0605289794038981e-05</internalNodes>
          <leafValues>
            1. -6.6438540816307068e-03</leafValues></_>
        <_>
          <internalNodes>
            0 -1 8 3.0064475722610950e-03</internalNodes>
          <leafValues>
            6.6437562927603722e-03 -1.</leafValues></_>
        <_>
          <internalNodes>
            0 -1 8 1.7285473877564073e-03</internalNodes>
          <leafValues>
            9.7753272143563663e-08 1.</leafValues></_>
        <_>
          <internalNodes>
            0 -1 0 -3.2097304938361049e-05</internalNodes>
          <leafValues>
            -1. -4.8078601231734872e-16</leafValues></_>
        <_>
          <internalNodes>
            0 -1 6 5.5303396948147565e-05</internalNodes>
          <leafValues>
            5.5695399641990662e-03 -1.</leafValues></_>
        <_>
          <internalNodes>
            0 -1 11 -3.3777363569242880e-05</internalNodes>
          <leafValues>
            1. -5.5694822221994400e-03</leafValues></_>
        <_>
          <internalNodes>
            0 -1 0 -3.2097304938361049e-05</internalNodes>
          <leafValues>
            -1. 5.2213366143405437e-03</leafValues></_>
        <_>
          <internalNodes>
            0 -1 15 -1.8984004782396369e-05</internalNodes>
          <leafValues>
            1. -5.2213468588888645e-03</leafValues></_>
        <_>
          <internalNodes>
            0 -1 3 1.9412187975831330e-04</internalNodes>
          <leafValues>
            -4.7449702833546326e-08 -1.</leafValues></_>
        <_>
          <internalNodes>
            0 -1 1 8.5694808512926102e-04</internalNodes>
          <leafValues>
            -3.5782443635614888e-16 1.</leafValues></_></weakClassifiers></_>
    <!-- stage 21 -->
    <_>
      <maxWeakCount>9</maxWeakCount>
      <stageThreshold>-5.7554614543914795e-01</stageThreshold>
      <weakClassifiers>
        <_>
          <internalNodes>
            0 -1 32 -4.6398712584050372e-05</internalNodes>
          <leafValues>
            9.4444441795349121e-01 -3.9534884691238403e-01</leafValues></_>
        <_>
          <internalNodes>
            0 -1 78 9.3307637143880129e-05</internalNodes>
          <leafValues>
            -1.4910997450351715e-01 1.</leafValues></_>
        <_>
          <internalNodes>
            0 -1 91 -2.9377428290899843e-05</internalNodes>
          <leafValues>
            1. -7.3190487921237946e-02</leafValues></_>
        <_>
          <internalNodes>
            0 -1 94 -9.8008031272911467e-06</internalNodes>
          <leafValues>
            1. -2.9215864837169647e-02</leafValues></_>
        <_>
          <internalNodes>
            0 -1 77 1.2701427331194282e-03</internalNodes>
          <leafValues>
            9.4110466539859772e-02 -1.</leafValues></_>
        <_>
          <internalNodes>
            0 -1 47 -1.3615339994430542e-03</internalNodes>
          <leafValues>
            1. -4.8329416662454605e-02</leafValues></_>
        <_>
          <internalNodes>
            0 -1 29 3.4322947612963617e-04</internalNodes>
          <leafValues>
            3.3581521362066269e-02 -1.</leafValues></_>
        <_>
          <internalNodes>
            0 -1 14 -1.0584639385342598e-03</internalNodes>
          <leafValues>
            1. -8.0433618277311325e-03</leafValues></_>
        <_>
          <internalNodes>
            0 -1 0 1.2981527834199369e-04</internalNodes>
          <leafValues>
            -1.7346361858017190e-07 1.</leafValues></_></weakClassifiers></_>
    <!-- stage 22 -->
    <_>
      <maxWeakCount>4</maxWeakCount>
      <stageThreshold>-6.1836844682693481e-01</stageThreshold>
      <weakClassifiers>
        <_>
          <internalNodes>
            0 -1 28 -8.6726213339716196e-04</internalNodes>
          <leafValues>
            1. -4.0909090638160706e-01</leafValues></_>
        <_>
          <internalNodes>
            0 -1 97 3.0263499866123311e-05</internalNodes>
          <leafValues>
            -1.4461897313594818e-01 1.</leafValues></_>
        <_>
          <internalNodes>
            0 -1 61 -2.9377428290899843e-05</internalNodes>
          <leafValues>
            1. -3.0857468023896217e-02</leafValues></_>
        <_>
          <internalNodes>
            0 -1 23 1.1760964116547257e-04</internalNodes>
          <leafValues>
            -3.3801075071096420e-02 1.</leafValues></_></weakClassifiers></_>
    <!-- stage 23 -->
    <_>
      <maxWeakCount>4</maxWeakCount>
      <stageThreshold>-6.1836844682693481e-01</stageThreshold>
      <weakClassifiers>
        <_>
          <internalNodes>
            0 -1 28 -8.6726213339716196e-04</internalNodes>
          <leafValues>
            1. -4.0909090638160706e-01</leafValues></_>
        <_>
          <internalNodes>
            0 -1 97 3.0263499866123311e-05</internalNodes>
          <leafValues>
            -1.4461897313594818e-01 1.</leafValues></_>
        <_>
          <internalNodes>
            0 -1 61 -2.9377428290899843e-05</internalNodes>
          <leafValues>
            1. -3.0857468023896217e-02</leafValues></_>
        <_>
          <internalNodes>
            0 -1 23 1.1760964116547257e-04</internalNodes>
          <leafValues>
            -3.3801075071096420e-02 1.</leafValues></_></weakClassifiers></_>
    <!-- stage 24 -->
    <_>
      <maxWeakCount>6</maxWeakCount>
      <stageThreshold>-6.0198789834976196e-01</stageThreshold>
      <weakClassifiers>
        <_>
          <internalNodes>
            0 -1 32 -4.6398712584050372e-05</internalNodes>
          <leafValues>
            1. -4.0909090638160706e-01</leafValues></_>
        <_>
          <internalNodes>
            0 -1 61 -2.9377428290899843e-05</internalNodes>
          <leafValues>
            1. -1.4461897313594818e-01</leafValues></_>
        <_>
          <internalNodes>
            0 -1 75 -2.2078929760027677e-04</internalNodes>
          <leafValues>
            1. -2.6837773621082306e-02</leafValues></_>
        <_>
          <internalNodes>
            0 -1 20 7.6513219391927123e-04</internalNodes>
          <leafValues>
            -3.7815608084201813e-02 1.</leafValues></_>
        <_>
          <internalNodes>
            0 -1 1 9.8008031272911467e-06</internalNodes>
          <leafValues>
            -1.8041178918792866e-05 1.</leafValues></_>
        <_>
          <internalNodes>
            0 -1 6 2.6689695660024881e-03</internalNodes>
          <leafValues>
            1.6393441706895828e-02 -1.</leafValues></_></weakClassifiers></_>
    <!-- stage 25 -->
    <_>
      <maxWeakCount>9</maxWeakCount>
      <stageThreshold>-5.8503562211990356e-01</stageThreshold>
      <weakClassifiers>
        <_>
          <internalNodes>
            0 -1 57 -5.6844658683985472e-04</internalNodes>
          <leafValues>
            1. -3.7777778506278992e-01</leafValues></_>
        <_>
          <internalNodes>
            0 -1 19 -4.9004014726961032e-05</internalNodes>
          <leafValues>
            1. -1.6149139404296875e-01</leafValues></_>
        <_>
          <internalNodes>
            0 -1 82 -2.9377428290899843e-05</internalNodes>
          <leafValues>
            1. -3.2278314232826233e-02</leafValues></_>
        <_>
          <internalNodes>
            0 -1 42 1.5466238255612552e-04</internalNodes>
          <leafValues>
            -3.6936376243829727e-02 1.</leafValues></_>
        <_>
          <internalNodes>
            0 -1 13 -4.2608226649463177e-03</internalNodes>
          <leafValues>
            -1. 3.3316541463136673e-02</leafValues></_>
        <_>
          <internalNodes>
            0 -1 83 -2.9176258249208331e-04</internalNodes>
          <leafValues>
            1. -2.1986458450555801e-02</leafValues></_>
        <_>
          <internalNodes>
            0 -1 13 -3.3285156823694706e-03</internalNodes>
          <leafValues>
            -1. 1.2117557227611542e-02</leafValues></_>
        <_>
          <internalNodes>
            0 -1 9 -2.8210195523570292e-05</internalNodes>
          <leafValues>
            1. 5.9314680811439757e-07</leafValues></_>
        <_>
          <internalNodes>
            0 -1 0 7.3005589656531811e-03</internalNodes>
          <leafValues>
            -3.5293927971197811e-16 -1.</leafValues></_></weakClassifiers></_>
    <!-- stage 26 -->
    <_>
      <maxWeakCount>4</maxWeakCount>
      <stageThreshold>-6.1836844682693481e-01</stageThreshold>
      <weakClassifiers>
        <_>
          <internalNodes>
            0 -1 28 -8.6726213339716196e-04</internalNodes>
          <leafValues>
            1. -4.0909090638160706e-01</leafValues></_>
        <_>
          <internalNodes>
            0 -1 97 3.0263499866123311e-05</internalNodes>
          <leafValues>
            -1.4461897313594818e-01 1.</leafValues></_>
        <_>
          <internalNodes>
            0 -1 61 -2.9377428290899843e-05</internalNodes>
          <leafValues>
            1. -3.0857468023896217e-02</leafValues></_>
        <_>
          <internalNodes>
            0 -1 23 1.1760964116547257e-04</internalNodes>
          <leafValues>
            -3.3801075071096420e-02 1.</leafValues></_></weakClassifiers></_>
    <!-- stage 27 -->
    <_>
      <maxWeakCount>4</maxWeakCount>
      <stageThreshold>-6.1836844682693481e-01</stageThreshold>
      <weakClassifiers>
        <_>
          <internalNodes>
            0 -1 28 -8.6726213339716196e-04</internalNodes>
          <leafValues>
            1. -4.0909090638160706e-01</leafValues></_>
        <_>
          <internalNodes>
            0 -1 97 3.0263499866123311e-05</internalNodes>
          <leafValues>
            -1.4461897313594818e-01 1.</leafValues></_>
        <_>
          <internalNodes>
            0 -1 61 -2.9377428290899843e-05</internalNodes>
          <leafValues>
            1. -3.0857468023896217e-02</leafValues></_>
        <_>
          <internalNodes>
            0 -1 23 1.1760964116547257e-04</internalNodes>
          <leafValues>
            -3.3801075071096420e-02 1.</leafValues></_></weakClassifiers></_>
    <!-- stage 28 -->
    <_>
      <maxWeakCount>4</maxWeakCount>
      <stageThreshold>-6.1836844682693481e-01</stageThreshold>
      <weakClassifiers>
        <_>
          <internalNodes>
            0 -1 28 -8.6726213339716196e-04</internalNodes>
          <leafValues>
            1. -4.0909090638160706e-01</leafValues></_>
        <_>
          <internalNodes>
            0 -1 97 3.0263499866123311e-05</internalNodes>
          <leafValues>
            -1.4461897313594818e-01 1.</leafValues></_>
        <_>
          <internalNodes>
            0 -1 61 -2.9377428290899843e-05</internalNodes>
          <leafValues>
            1. -3.0857468023896217e-02</leafValues></_>
        <_>
          <internalNodes>
            0 -1 23 1.1760964116547257e-04</internalNodes>
          <leafValues>
            -3.3801075071096420e-02 1.</leafValues></_></weakClassifiers></_>
    <!-- stage 29 -->
    <_>
      <maxWeakCount>4</maxWeakCount>
      <stageThreshold>-6.1836844682693481e-01</stageThreshold>
      <weakClassifiers>
        <_>
          <internalNodes>
            0 -1 28 -8.6726213339716196e-04</internalNodes>
          <leafValues>
            1. -4.0909090638160706e-01</leafValues></_>
        <_>
          <internalNodes>
            0 -1 97 3.0263499866123311e-05</internalNodes>
          <leafValues>
            -1.4461897313594818e-01 1.</leafValues></_>
        <_>
          <internalNodes>
            0 -1 61 -2.9377428290899843e-05</internalNodes>
          <leafValues>
            1. -3.0857468023896217e-02</leafValues></_>
        <_>
          <internalNodes>
            0 -1 23 1.1760964116547257e-04</internalNodes>
          <leafValues>
            -3.3801075071096420e-02 1.</leafValues></_></weakClassifiers></_>
    <!-- stage 30 -->
    <_>
      <maxWeakCount>4</maxWeakCount>
      <stageThreshold>-6.1836844682693481e-01</stageThreshold>
      <weakClassifiers>
        <_>
          <internalNodes>
            0 -1 28 -8.6726213339716196e-04</internalNodes>
          <leafValues>
            1. -4.0909090638160706e-01</leafValues></_>
        <_>
          <internalNodes>
            0 -1 97 3.0263499866123311e-05</internalNodes>
          <leafValues>
            -1.4461897313594818e-01 1.</leafValues></_>
        <_>
          <internalNodes>
            0 -1 61 -2.9377428290899843e-05</internalNodes>
          <leafValues>
            1. -3.0857468023896217e-02</leafValues></_>
        <_>
          <internalNodes>
            0 -1 23 1.1760964116547257e-04</internalNodes>
          <leafValues>
            -3.3801075071096420e-02 1.</leafValues></_></weakClassifiers></_>
    <!-- stage 31 -->
    <_>
      <maxWeakCount>4</maxWeakCount>
      <stageThreshold>-6.1836844682693481e-01</stageThreshold>
      <weakClassifiers>
        <_>
          <internalNodes>
            0 -1 28 -8.6726213339716196e-04</internalNodes>
          <leafValues>
            1. -4.0909090638160706e-01</leafValues></_>
        <_>
          <internalNodes>
            0 -1 97 3.0263499866123311e-05</internalNodes>
          <leafValues>
            -1.4461897313594818e-01 1.</leafValues></_>
        <_>
          <internalNodes>
            0 -1 61 -2.9377428290899843e-05</internalNodes>
          <leafValues>
            1. -3.0857468023896217e-02</leafValues></_>
        <_>
          <internalNodes>
            0 -1 23 1.1760964116547257e-04</internalNodes>
          <leafValues>
            -3.3801075071096420e-02 1.</leafValues></_></weakClassifiers></_>
    <!-- stage 32 -->
    <_>
      <maxWeakCount>4</maxWeakCount>
      <stageThreshold>-6.1836844682693481e-01</stageThreshold>
      <weakClassifiers>
        <_>
          <internalNodes>
            0 -1 28 -8.6726213339716196e-04</internalNodes>
          <leafValues>
            1. -4.0909090638160706e-01</leafValues></_>
        <_>
          <internalNodes>
            0 -1 97 3.0263499866123311e-05</internalNodes>
          <leafValues>
            -1.4461897313594818e-01 1.</leafValues></_>
        <_>
          <internalNodes>
            0 -1 61 -2.9377428290899843e-05</internalNodes>
          <leafValues>
            1. -3.0857468023896217e-02</leafValues></_>
        <_>
          <internalNodes>
            0 -1 23 1.1760964116547257e-04</internalNodes>
          <leafValues>
            -3.3801075071096420e-02 1.</leafValues></_></weakClassifiers></_>
    <!-- stage 33 -->
    <_>
      <maxWeakCount>7</maxWeakCount>
      <stageThreshold>-6.0798186063766479e-01</stageThreshold>
      <weakClassifiers>
        <_>
          <internalNodes>
            0 -1 97 3.0263499866123311e-05</internalNodes>
          <leafValues>
            -3.7777778506278992e-01 1.</leafValues></_>
        <_>
          <internalNodes>
            0 -1 65 -1.7847612034529448e-03</internalNodes>
          <leafValues>
            1. -1.3859350979328156e-01</leafValues></_>
        <_>
          <internalNodes>
            0 -1 100 1.5466237528016791e-05</internalNodes>
          <leafValues>
            -3.9124093949794769e-02 1.</leafValues></_>
        <_>
          <internalNodes>
            0 -1 92 -1.7209553334396333e-05</internalNodes>
          <leafValues>
            1. -5.3022269159555435e-02</leafValues></_>
        <_>
          <internalNodes>
            0 -1 26 -1.6670374199748039e-02</internalNodes>
          <leafValues>
            1. -9.8633440211415291e-03</leafValues></_>
        <_>
          <internalNodes>
            0 -1 16 1.7722752818372101e-04</internalNodes>
          <leafValues>
            1.6393123194575310e-02 -1.</leafValues></_>
        <_>
          <internalNodes>
            0 -1 7 -1.9601606254582293e-05</internalNodes>
          <leafValues>
            1. -5.9940009377896786e-03</leafValues></_></weakClassifiers></_></stages>
  <features>
    <_>
      <rects>
        <_>
          0 0 2 1 -1.</_>
        <_>
          1 0 1 1 2.</_></rects>
      <tilted>0</tilted></_>
    <_>
      <rects>
        <_>
          0 0 1 2 -1.</_>
        <_>
          0 1 1 1 2.</_></rects>
      <tilted>0</tilted></_>
    <_>
      <rects>
        <_>
          0 0 3 1 -1.</_>
        <_>
          1 0 1 1 3.</_></rects>
      <tilted>0</tilted></_>
    <_>
      <rects>
        <_>
          0 0 1 3 -1.</_>
        <_>
          0 1 1 1 3.</_></rects>
      <tilted>0</tilted></_>
    <_>
      <rects>
        <_>
          0 0 1 4 -1.</_>
        <_>
          0 2 1 2 2.</_></rects>
      <tilted>0</tilted></_>
    <_>
      <rects>
        <_>
          0 0 2 4 -1.</_>
        <_>
          0 0 1 2 2.</_>
        <_>
          1 2 1 2 2.</_></rects>
      <tilted>0</tilted></_>
    <_>
      <rects>
        <_>
          0 0 1 12 -1.</_>
        <_>
          0 4 1 4 3.</_></rects>
      <tilted>0</tilted></_>
    <_>
      <rects>
        <_>
          0 0 2 5 -1.</_>
        <_>
          1 0 1 5 2.</_></rects>
      <tilted>0</tilted></_>
    <_>
      <rects>
        <_>
          0 0 1 18 -1.</_>
        <_>
          0 6 1 6 3.</_></rects>
      <tilted>0</tilted></_>
    <_>
      <rects>
        <_>
          0 0 1 14 -1.</_>
        <_>
          0 7 1 7 2.</_></rects>
      <tilted>0</tilted></_>
    <_>
      <rects>
        <_>
          0 0 1 21 -1.</_>
        <_>
          0 7 1 7 3.</_></rects>
      <tilted>0</tilted></_>
    <_>
      <rects>
        <_>
          0 0 3 8 -1.</_>
        <_>
          1 0 1 8 3.</_></rects>
      <tilted>0</tilted></_>
    <_>
      <rects>
        <_>
          0 0 1 24 -1.</_>
        <_>
          0 8 1 8 3.</_></rects>
      <tilted>0</tilted></_>
    <_>
      <rects>
        <_>
          0 0 1 20 -1.</_>
        <_>
          0 10 1 10 2.</_></rects>
      <tilted>0</tilted></_>
    <_>
      <rects>
        <_>
          0 0 3 11 -1.</_>
        <_>
          1 0 1 11 3.</_></rects>
      <tilted>0</tilted></_>
    <_>
      <rects>
        <_>
          0 0 2 4 -1.</_>
        <_>
          0 2 2 2 2.</_></rects>
      <tilted>0</tilted></_>
    <_>
      <rects>
        <_>
          0 0 6 22 -1.</_>
        <_>
          2 0 2 22 3.</_></rects>
      <tilted>0</tilted></_>
    <_>
      <rects>
        <_>
          0 0 12 8 -1.</_>
        <_>
          4 0 4 8 3.</_></rects>
      <tilted>0</tilted></_>
    <_>
      <rects>
        <_>
          0 0 12 4 -1.</_>
        <_>
          0 0 6 2 2.</_>
        <_>
          6 2 6 2 2.</_></rects>
      <tilted>0</tilted></_>
    <_>
      <rects>
        <_>
          0 0 12 10 -1.</_>
        <_>
          0 0 6 5 2.</_>
        <_>
          6 5 6 5 2.</_></rects>
      <tilted>0</tilted></_>
    <_>
      <rects>
        <_>
          0 0 24 8 -1.</_>
        <_>
          8 0 8 8 3.</_></rects>
      <tilted>0</tilted></_>
    <_>
      <rects>
        <_>
          0 0 20 1 -1.</_>
        <_>
          10 0 10 1 2.</_></rects>
      <tilted>0</tilted></_>
    <_>
      <rects>
        <_>
          0 0 22 24 -1.</_>
        <_>
          0 0 11 12 2.</_>
        <_>
          11 12 11 12 2.</_></rects>
      <tilted>0</tilted></_>
    <_>
      <rects>
        <_>
          0 0 24 8 -1.</_>
        <_>
          0 0 12 4 2.</_>
        <_>
          12 4 12 4 2.</_></rects>
      <tilted>0</tilted></_>
    <_>
      <rects>
        <_>
          0 0 24 14 -1.</_>
        <_>
          12 0 12 14 2.</_></rects>
      <tilted>0</tilted></_>
    <_>
      <rects>
        <_>
          0 0 13 10 -1.</_>
        <_>
          0 5 13 5 2.</_></rects>
      <tilted>0</tilted></_>
    <_>
      <rects>
        <_>
          0 0 18 24 -1.</_>
        <_>
          0 8 18 8 3.</_></rects>
      <tilted>0</tilted></_>
    <_>
      <rects>
        <_>
          0 0 20 20 -1.</_>
        <_>
          0 10 20 10 2.</_></rects>
      <tilted>0</tilted></_>
    <_>
      <rects>
        <_>
          0 0 21 18 -1.</_>
        <_>
          0 9 21 9 2.</_></rects>
      <tilted>0</tilted></_>
    <_>
      <rects>
        <_>
          0 0 22 15 -1.</_>
        <_>
          0 5 22 5 3.</_></rects>
      <tilted>0</tilted></_>
    <_>
      <rects>
        <_>
          0 1 24 21 -1.</_>
        <_>
          12 1 12 21 2.</_></rects>
      <tilted>0</tilted></_>
    <_>
      <rects>
        <_>
          0 3 24 19 -1.</_>
        <_>
          8 3 8 19 3.</_></rects>
      <tilted>0</tilted></_>
    <_>
      <rects>
        <_>
          0 5 16 10 -1.</_>
        <_>
          8 5 8 10 2.</_></rects>
      <tilted>0</tilted></_>
    <_>
      <rects>
        <_>
          0 5 24 18 -1.</_>
        <_>
          12 5 12 18 2.</_></rects>
      <tilted>0</tilted></_>
    <_>
      <rects>
        <_>
          0 8 1 8 -1.</_>
        <_>
          0 12 1 4 2.</_></rects>
      <tilted>0</tilted></_>
    <_>
      <rects>
        <_>
          0 10 6 6 -1.</_>
        <_>
          0 12 6 2 3.</_></rects>
      <tilted>0</tilted></_>
    <_>
      <rects>
        <_>
          0 11 4 2 -1.</_>
        <_>
          0 11 2 1 2.</_>
        <_>
          2 12 2 1 2.</_></rects>
      <tilted>0</tilted></_>
    <_>
      <rects>
        <_>
          0 11 6 6 -1.</_>
        <_>
          0 11 3 3 2.</_>
        <_>
          3 14 3 3 2.</_></rects>
      <tilted>0</tilted></_>
    <_>
      <rects>
        <_>
          0 18 10 6 -1.</_>
        <_>
          0 18 5 3 2.</_>
        <_>
          5 21 5 3 2.</_></rects>
      <tilted>0</tilted></_>
    <_>
      <rects>
        <_>
          1 0 10 1 -1.</_>
        <_>
          6 0 5 1 2.</_></rects>
      <tilted>0</tilted></_>
    <_>
      <rects>
        <_>
          1 0 6 6 -1.</_>
        <_>
          1 3 6 3 2.</_></rects>
      <tilted>0</tilted></_>
    <_>
      <rects>
        <_>
          1 0 18 22 -1.</_>
        <_>
          7 0 6 22 3.</_></rects>
      <tilted>0</tilted></_>
    <_>
      <rects>
        <_>
          1 0 21 8 -1.</_>
        <_>
          8 0 7 8 3.</_></rects>
      <tilted>0</tilted></_>
    <_>
      <rects>
        <_>
          1 9 2 2 -1.</_>
        <_>
          1 9 1 1 2.</_>
        <_>
          2 10 1 1 2.</_></rects>
      <tilted>0</tilted></_>
    <_>
      <rects>
        <_>
          1 11 2 2 -1.</_>
        <_>
          1 11 1 1 2.</_>
        <_>
          2 12 1 1 2.</_></rects>
      <tilted>0</tilted></_>
    <_>
      <rects>
        <_>
          1 12 20 12 -1.</_>
        <_>
          1 16 20 4 3.</_></rects>
      <tilted>0</tilted></_>
    <_>
      <rects>
        <_>
          1 13 14 4 -1.</_>
        <_>
          1 13 7 2 2.</_>
        <_>
          8 15 7 2 2.</_></rects>
      <tilted>0</tilted></_>
    <_>
      <rects>
        <_>
          2 0 9 15 -1.</_>
        <_>
          5 0 3 15 3.</_></rects>
      <tilted>0</tilted></_>
    <_>
      <rects>
        <_>
          2 0 12 1 -1.</_>
        <_>
          6 0 4 1 3.</_></rects>
      <tilted>0</tilted></_>
    <_>
      <rects>
        <_>
          2 1 18 7 -1.</_>
        <_>
          8 1 6 7 3.</_></rects>
      <tilted>0</tilted></_>
    <_>
      <rects>
        <_>
          2 2 6 17 -1.</_>
        <_>
          5 2 3 17 2.</_></rects>
      <tilted>0</tilted></_>
    <_>
      <rects>
        <_>
          2 10 2 3 -1.</_>
        <_>
          3 10 1 3 2.</_></rects>
      <tilted>0</tilted></_>
    <_>
      <rects>
        <_>
          3 0 11 8 -1.</_>
        <_>
          3 4 11 4 2.</_></rects>
      <tilted>0</tilted></_>
    <_>
      <rects>
        <_>
          3 1 4 14 -1.</_>
        <_>
          5 1 2 14 2.</_></rects>
      <tilted>0</tilted></_>
    <_>
      <rects>
        <_>
          3 3 6 18 -1.</_>
        <_>
          3 3 3 9 2.</_>
        <_>
          6 12 3 9 2.</_></rects>
      <tilted>0</tilted></_>
    <_>
      <rects>
        <_>
          3 9 12 8 -1.</_>
        <_>
          7 9 4 8 3.</_></rects>
      <tilted>0</tilted></_>
    <_>
      <rects>
        <_>
          3 11 4 6 -1.</_>
        <_>
          3 11 2 3 2.</_>
        <_>
          5 14 2 3 2.</_></rects>
      <tilted>0</tilted></_>
    <_>
      <rects>
        <_>
          3 11 21 4 -1.</_>
        <_>
          10 11 7 4 3.</_></rects>
      <tilted>0</tilted></_>
    <_>
      <rects>
        <_>
          3 19 9 2 -1.</_>
        <_>
          6 19 3 2 3.</_></rects>
      <tilted>0</tilted></_>
    <_>
      <rects>
        <_>
          3 20 12 2 -1.</_>
        <_>
          3 20 6 1 2.</_>
        <_>
          9 21 6 1 2.</_></rects>
      <tilted>0</tilted></_>
    <_>
      <rects>
        <_>
          4 0 3 17 -1.</_>
        <_>
          5 0 1 17 3.</_></rects>
      <tilted>0</tilted></_>
    <_>
      <rects>
        <_>
          4 0 16 6 -1.</_>
        <_>
          4 3 16 3 2.</_></rects>
      <tilted>0</tilted></_>
    <_>
      <rects>
        <_>
          4 13 4 1 -1.</_>
        <_>
          6 13 2 1 2.</_></rects>
      <tilted>0</tilted></_>
    <_>
      <rects>
        <_>
          4 13 18 6 -1.</_>
        <_>
          4 13 9 3 2.</_>
        <_>
          13 16 9 3 2.</_></rects>
      <tilted>0</tilted></_>
    <_>
      <rects>
        <_>
          4 18 2 6 -1.</_>
        <_>
          4 18 1 3 2.</_>
        <_>
          5 21 1 3 2.</_></rects>
      <tilted>0</tilted></_>
    <_>
      <rects>
        <_>
          5 0 6 8 -1.</_>
        <_>
          5 4 6 4 2.</_></rects>
      <tilted>0</tilted></_>
    <_>
      <rects>
        <_>
          5 0 12 6 -1.</_>
        <_>
          5 3 12 3 2.</_></rects>
      <tilted>0</tilted></_>
    <_>
      <rects>
        <_>
          5 1 16 2 -1.</_>
        <_>
          13 1 8 2 2.</_></rects>
      <tilted>0</tilted></_>
    <_>
      <rects>
        <_>
          5 2 9 3 -1.</_>
        <_>
          8 2 3 3 3.</_></rects>
      <tilted>0</tilted></_>
    <_>
      <rects>
        <_>
          5 5 2 6 -1.</_>
        <_>
          6 5 1 6 2.</_></rects>
      <tilted>0</tilted></_>
    <_>
      <rects>
        <_>
          5 6 2 2 -1.</_>
        <_>
          6 6 1 2 2.</_></rects>
      <tilted>0</tilted></_>
    <_>
      <rects>
        <_>
          6 0 11 15 -1.</_>
        <_>
          6 5 11 5 3.</_></rects>
      <tilted>0</tilted></_>
    <_>
      <rects>
        <_>
          6 0 12 18 -1.</_>
        <_>
          6 9 12 9 2.</_></rects>
      <tilted>0</tilted></_>
    <_>
      <rects>
        <_>
          6 1 4 2 -1.</_>
        <_>
          8 1 2 2 2.</_></rects>
      <tilted>0</tilted></_>
    <_>
      <rects>
        <_>
          6 1 12 23 -1.</_>
        <_>
          10 1 4 23 3.</_></rects>
      <tilted>0</tilted></_>
    <_>
      <rects>
        <_>
          6 10 18 5 -1.</_>
        <_>
          12 10 6 5 3.</_></rects>
      <tilted>0</tilted></_>
    <_>
      <rects>
        <_>
          6 18 2 6 -1.</_>
        <_>
          6 21 2 3 2.</_></rects>
      <tilted>0</tilted></_>
    <_>
      <rects>
        <_>
          7 0 15 15 -1.</_>
        <_>
          12 0 5 15 3.</_></rects>
      <tilted>0</tilted></_>
    <_>
      <rects>
        <_>
          7 1 6 21 -1.</_>
        <_>
          9 1 2 21 3.</_></rects>
      <tilted>0</tilted></_>
    <_>
      <rects>
        <_>
          7 1 6 22 -1.</_>
        <_>
          9 1 2 22 3.</_></rects>
      <tilted>0</tilted></_>
    <_>
      <rects>
        <_>
          7 14 6 2 -1.</_>
        <_>
          7 14 3 1 2.</_>
        <_>
          10 15 3 1 2.</_></rects>
      <tilted>0</tilted></_>
    <_>
      <rects>
        <_>
          8 23 3 1 -1.</_>
        <_>
          9 23 1 1 3.</_></rects>
      <tilted>0</tilted></_>
    <_>
      <rects>
        <_>
          9 0 6 6 -1.</_>
        <_>
          9 3 6 3 2.</_></rects>
      <tilted>0</tilted></_>
    <_>
      <rects>
        <_>
          9 0 8 4 -1.</_>
        <_>
          9 2 8 2 2.</_></rects>
      <tilted>0</tilted></_>
    <_>
      <rects>
        <_>
          9 10 6 5 -1.</_>
        <_>
          11 10 2 5 3.</_></rects>
      <tilted>0</tilted></_>
    <_>
      <rects>
        <_>
          10 2 1 6 -1.</_>
        <_>
          10 5 1 3 2.</_></rects>
      <tilted>0</tilted></_>
    <_>
      <rects>
        <_>
          10 2 2 8 -1.</_>
        <_>
          10 2 1 4 2.</_>
        <_>
          11 6 1 4 2.</_></rects>
      <tilted>0</tilted></_>
    <_>
      <rects>
        <_>
          10 3 12 2 -1.</_>
        <_>
          14 3 4 2 3.</_></rects>
      <tilted>0</tilted></_>
    <_>
      <rects>
        <_>
          11 0 12 4 -1.</_>
        <_>
          11 2 12 2 2.</_></rects>
      <tilted>0</tilted></_>
    <_>
      <rects>
        <_>
          11 2 5 18 -1.</_>
        <_>
          11 11 5 9 2.</_></rects>
      <tilted>0</tilted></_>
    <_>
      <rects>
        <_>
          11 20 6 3 -1.</_>
        <_>
          14 20 3 3 2.</_></rects>
      <tilted>0</tilted></_>
    <_>
      <rects>
        <_>
          12 0 3 6 -1.</_>
        <_>
          12 3 3 3 2.</_></rects>
      <tilted>0</tilted></_>
    <_>
      <rects>
        <_>
          13 0 3 6 -1.</_>
        <_>
          14 0 1 6 3.</_></rects>
      <tilted>0</tilted></_>
    <_>
      <rects>
        <_>
          13 3 3 16 -1.</_>
        <_>
          14 3 1 16 3.</_></rects>
      <tilted>0</tilted></_>
    <_>
      <rects>
        <_>
          13 11 3 6 -1.</_>
        <_>
          14 11 1 6 3.</_></rects>
      <tilted>0</tilted></_>
    <_>
      <rects>
        <_>
          13 14 3 3 -1.</_>
        <_>
          14 14 1 3 3.</_></rects>
      <tilted>0</tilted></_>
    <_>
      <rects>
        <_>
          13 22 2 1 -1.</_>
        <_>
          14 22 1 1 2.</_></rects>
      <tilted>0</tilted></_>
    <_>
      <rects>
        <_>
          14 7 10 14 -1.</_>
        <_>
          19 7 5 14 2.</_></rects>
      <tilted>0</tilted></_>
    <_>
      <rects>
        <_>
          14 9 10 12 -1.</_>
        <_>
          14 13 10 4 3.</_></rects>
      <tilted>0</tilted></_>
    <_>
      <rects>
        <_>
          15 0 8 1 -1.</_>
        <_>
          19 0 4 1 2.</_></rects>
      <tilted>0</tilted></_>
    <_>
      <rects>
        <_>
          15 1 2 19 -1.</_>
        <_>
          16 1 1 19 2.</_></rects>
      <tilted>0</tilted></_>
    <_>
      <rects>
        <_>
          15 13 2 5 -1.</_>
        <_>
          16 13 1 5 2.</_></rects>
      <tilted>0</tilted></_>
    <_>
      <rects>
        <_>
          15 19 8 5 -1.</_>
        <_>
          19 19 4 5 2.</_></rects>
      <tilted>0</tilted></_>
    <_>
      <rects>
        <_>
          16 19 2 4 -1.</_>
        <_>
          16 21 2 2 2.</_></rects>
      <tilted>0</tilted></_>
    <_>
      <rects>
        <_>
          17 3 6 8 -1.</_>
        <_>
          17 3 3 4 2.</_>
        <_>
          20 7 3 4 2.</_></rects>
      <tilted>0</tilted></_>
    <_>
      <rects>
        <_>
          18 1 3 2 -1.</_>
        <_>
          19 1 1 2 3.</_></rects>
      <tilted>0</tilted></_>
    <_>
      <rects>
        <_>
          18 12 4 8 -1.</_>
        <_>
          18 16 4 4 2.</_></rects>
      <tilted>0</tilted></_>
    <_>
      <rects>
        <_>
          21 13 3 4 -1.</_>
        <_>
          22 13 1 4 3.</_></rects>
      <tilted>0</tilted></_>
    <_>
      <rects>
        <_>
          21 22 2 1 -1.</_>
        <_>
          22 22 1 1 2.</_></rects>
      <tilted>0</tilted></_>
    <_>
      <rects>
        <_>
          22 2 1 3 -1.</_>
        <_>
          22 3 1 1 3.</_></rects>
      <tilted>0</tilted></_>
    <_>
      <rects>
        <_>
          22 7 1 10 -1.</_>
        <_>
          22 12 1 5 2.</_></rects>
      <tilted>0</tilted></_>
    <_>
      <rects>
        <_>
          23 3 1 6 -1.</_>
        <_>
          23 5 1 2 3.</_></rects>
      <tilted>0</tilted></_>
    <_>
      <rects>
        <_>
          23 6 1 6 -1.</_>
        <_>
          23 8 1 2 3.</_></rects>
      <tilted>0</tilted></_>
    <_>
      <rects>
        <_>
          23 20 1 2 -1.</_>
        <_>
          23 21 1 1 2.</_></rects>
      <tilted>0</tilted></_></features></cascade>
</opencv_storage>
